<?xml version="1.0"?>
<opencv_storage>
<cascade>
  <stageType>BOOST</stageType>
  <featureType>HAAR</featureType>
  <height>20</height>
  <width>20</width>
  <stageParams>
    <boostType>GAB</boostType>
    <minHitRate>9.9500000476837158e-01</minHitRate>
    <maxFalseAlarm>5.0000000000000000e-01</maxFalseAlarm>
    <weightTrimRate>9.4999999999999996e-01</weightTrimRate>
    <maxDepth>1</maxDepth>
    <maxWeakCount>100</maxWeakCount></stageParams>
  <featureParams>
    <maxCatCount>0</maxCatCount>
    <featSize>1</featSize>
    <mode>BASIC</mode></featureParams>
  <stageNum>7</stageNum>
  <stages>
    <!-- stage 0 -->
    <_>
      <maxWeakCount>2</maxWeakCount>
      <stageThreshold>9.7438199445605278e-03</stageThreshold>
      <weakClassifiers>
        <_>
          <internalNodes>
            0 -1 7 -8.9179918169975281e-02</internalNodes>
          <leafValues>
            9.2238807678222656e-01 -8.8571429252624512e-01</leafValues></_>
        <_>
          <internalNodes>
            0 -1 11 4.2109891772270203e-02</internalNodes>
          <leafValues>
            -8.9374226331710815e-01 8.9545810222625732e-01</leafValues></_></weakClassifiers></_>
    <!-- stage 1 -->
    <_>
      <maxWeakCount>2</maxWeakCount>
      <stageThreshold>-7.2503015398979187e-02</stageThreshold>
      <weakClassifiers>
        <_>
          <internalNodes>
            0 -1 19 6.8554401397705078e-02</internalNodes>
          <leafValues>
            -7.9130434989929199e-01 8.3414632081985474e-01</leafValues></_>
        <_>
          <internalNodes>
            0 -1 13 4.6713419258594513e-02</internalNodes>
          <leafValues>
            -9.0664935111999512e-01 7.3168325424194336e-01</leafValues></_></weakClassifiers></_>
    <!-- stage 2 -->
    <_>
      <maxWeakCount>4</maxWeakCount>
      <stageThreshold>-1.2847778797149658e+00</stageThreshold>
      <weakClassifiers>
        <_>
          <internalNodes>
            0 -1 2 7.7531099319458008e-02</internalNodes>
          <leafValues>
            -7.3063975572586060e-01 8.2902586460113525e-01</leafValues></_>
        <_>
          <internalNodes>
            0 -1 20 -8.6466111242771149e-03</internalNodes>
          <leafValues>
            8.4389841556549072e-01 -5.7919853925704956e-01</leafValues></_>
        <_>
          <internalNodes>
            0 -1 5 7.6765768229961395e-02</internalNodes>
          <leafValues>
            -6.6686815023422241e-01 7.3603248596191406e-01</leafValues></_>
        <_>
          <internalNodes>
            0 -1 14 8.9069962501525879e-02</internalNodes>
          <leafValues>
            -7.8894507884979248e-01 6.9192856550216675e-01</leafValues></_></weakClassifiers></_>
    <!-- stage 3 -->
    <_>
      <maxWeakCount>2</maxWeakCount>
      <stageThreshold>-1.6903117299079895e-01</stageThreshold>
      <weakClassifiers>
        <_>
          <internalNodes>
            0 -1 8 1.1248522996902466e-01</internalNodes>
          <leafValues>
            -7.7224200963973999e-01 8.0346822738647461e-01</leafValues></_>
        <_>
          <internalNodes>
            0 -1 18 3.1173313036561012e-03</internalNodes>
          <leafValues>
            -9.0764623880386353e-01 6.0321080684661865e-01</leafValues></_></weakClassifiers></_>
    <!-- stage 4 -->
    <_>
      <maxWeakCount>5</maxWeakCount>
      <stageThreshold>-9.0828031301498413e-01</stageThreshold>
      <weakClassifiers>
        <_>
          <internalNodes>
            0 -1 0 7.7391834929585457e-03</internalNodes>
          <leafValues>
            -6.3057327270507812e-01 8.1893002986907959e-01</leafValues></_>
        <_>
          <internalNodes>
            0 -1 4 -2.0829698443412781e-01</internalNodes>
          <leafValues>
            6.7013919353485107e-01 -6.7294245958328247e-01</leafValues></_>
        <_>
          <internalNodes>
            0 -1 15 2.3067755624651909e-02</internalNodes>
          <leafValues>
            -7.9142791032791138e-01 6.9835382699966431e-01</leafValues></_>
        <_>
          <internalNodes>
            0 -1 21 -3.1940112821757793e-03</internalNodes>
          <leafValues>
            6.0263437032699585e-01 -6.4029854536056519e-01</leafValues></_>
        <_>
          <internalNodes>
            0 -1 9 -1.9497677567414939e-04</internalNodes>
          <leafValues>
            4.8388022184371948e-01 -8.6341625452041626e-01</leafValues></_></weakClassifiers></_>
    <!-- stage 5 -->
    <_>
      <maxWeakCount>4</maxWeakCount>
      <stageThreshold>-2.8858938813209534e-01</stageThreshold>
      <weakClassifiers>
        <_>
          <internalNodes>
            0 -1 1 7.6889903284609318e-03</internalNodes>
          <leafValues>
            -5.1496064662933350e-01 7.5336790084838867e-01</leafValues></_>
        <_>
          <internalNodes>
            0 -1 6 1.9091147184371948e-01</internalNodes>
          <leafValues>
            -6.6099256277084351e-01 5.9201973676681519e-01</leafValues></_>
        <_>
          <internalNodes>
            0 -1 16 1.2428779900074005e-01</internalNodes>
          <leafValues>
            -7.8802400827407837e-01 5.7469558715820312e-01</leafValues></_>
        <_>
          <internalNodes>
            0 -1 17 -1.5919541474431753e-03</internalNodes>
          <leafValues>
            4.2237553000450134e-01 -9.5443344116210938e-01</leafValues></_></weakClassifiers></_>
    <!-- stage 6 -->
    <_>
      <maxWeakCount>3</maxWeakCount>
      <stageThreshold>-1.4390127733349800e-02</stageThreshold>
      <weakClassifiers>
        <_>
          <internalNodes>
            0 -1 3 2.9410731792449951e-01</internalNodes>
          <leafValues>
            -7.5847458839416504e-01 6.7198580503463745e-01</leafValues></_>
        <_>
          <internalNodes>
            0 -1 12 -1.5510484445258044e-05</internalNodes>
          <leafValues>
            3.9062404632568359e-01 -9.3981850147247314e-01</leafValues></_>
        <_>
          <internalNodes>
            0 -1 10 2.7652597054839134e-04</internalNodes>
          <leafValues>
            3.5346040129661560e-01 -9.6130996942520142e-01</leafValues></_></weakClassifiers></_></stages>
  <features>
    <_>
      <rects>
        <_>
          0 7 2 6 -1.</_>
        <_>
          1 7 1 6 2.</_></rects>
      <tilted>0</tilted></_>
    <_>
      <rects>
        <_>
          0 8 2 4 -1.</_>
        <_>
          1 8 1 4 2.</_></rects>
      <tilted>0</tilted></_>
    <_>
      <rects>
        <_>
          1 1 3 18 -1.</_>
        <_>
          1 7 3 6 3.</_></rects>
      <tilted>0</tilted></_>
    <_>
      <rects>
        <_>
          1 2 18 18 -1.</_>
        <_>
          1 8 18 6 3.</_></rects>
      <tilted>0</tilted></_>
    <_>
      <rects>
        <_>
          2 12 16 8 -1.</_>
        <_>
          2 16 16 4 2.</_></rects>
      <tilted>0</tilted></_>
    <_>
      <rects>
        <_>
          3 0 13 6 -1.</_>
        <_>
          3 3 13 3 2.</_></rects>
      <tilted>0</tilted></_>
    <_>
      <rects>
        <_>
          3 0 16 10 -1.</_>
        <_>
          3 5 16 5 2.</_></rects>
      <tilted>0</tilted></_>
    <_>
      <rects>
        <_>
          3 13 16 6 -1.</_>
        <_>
          3 16 16 3 2.</_></rects>
      <tilted>0</tilted></_>
    <_>
      <rects>
        <_>
          4 1 13 12 -1.</_>
        <_>
          4 5 13 4 3.</_></rects>
      <tilted>0</tilted></_>
    <_>
      <rects>
        <_>
          4 8 2 6 -1.</_>
        <_>
          5 8 1 6 2.</_></rects>
      <tilted>0</tilted></_>
    <_>
      <rects>
        <_>
          5 7 6 6 -1.</_>
        <_>
          7 7 2 6 3.</_></rects>
      <tilted>0</tilted></_>
    <_>
      <rects>
        <_>
          6 1 6 9 -1.</_>
        <_>
          6 4 6 3 3.</_></rects>
      <tilted>0</tilted></_>
    <_>
      <rects>
        <_>
          6 7 9 2 -1.</_>
        <_>
          9 7 3 2 3.</_></rects>
      <tilted>0</tilted></_>
    <_>
      <rects>
        <_>
          7 10 5 9 -1.</_>
        <_>
          7 13 5 3 3.</_></rects>
      <tilted>0</tilted></_>
    <_>
      <rects>
        <_>
          7 10 6 9 -1.</_>
        <_>
          7 13 6 3 3.</_></rects>
      <tilted>0</tilted></_>
    <_>
      <rects>
        <_>
          8 2 5 6 -1.</_>
        <_>
          8 4 5 2 3.</_></rects>
      <tilted>0</tilted></_>
    <_>
      <rects>
        <_>
          8 8 8 12 -1.</_>
        <_>
          8 12 8 4 3.</_></rects>
      <tilted>0</tilted></_>
    <_>
      <rects>
        <_>
          9 6 1 6 -1.</_>
        <_>
          9 9 1 3 2.</_></rects>
      <tilted>0</tilted></_>
    <_>
      <rects>
        <_>
          11 10 6 2 -1.</_>
        <_>
          14 10 3 2 2.</_></rects>
      <tilted>0</tilted></_>
    <_>
      <rects>
        <_>
          16 0 3 18 -1.</_>
        <_>
          16 6 3 6 3.</_></rects>
      <tilted>0</tilted></_>
    <_>
      <rects>
        <_>
          18 8 2 5 -1.</_>
        <_>
          19 8 1 5 2.</_></rects>
      <tilted>0</tilted></_>
    <_>
      <rects>
        <_>
          18 9 2 2 -1.</_>
        <_>
          19 9 1 2 2.</_></rects>
      <tilted>0</tilted></_></features></cascade>
</opencv_storage>
