<?xml version="1.0"?>
<opencv_storage>
<cascade>
  <stageType>BOOST</stageType>
  <featureType>HAAR</featureType>
  <height>20</height>
  <width>20</width>
  <stageParams>
    <boostType>GAB</boostType>
    <minHitRate>9.9500000476837158e-01</minHitRate>
    <maxFalseAlarm>5.0000000000000000e-01</maxFalseAlarm>
    <weightTrimRate>9.4999999999999996e-01</weightTrimRate>
    <maxDepth>1</maxDepth>
    <maxWeakCount>100</maxWeakCount></stageParams>
  <featureParams>
    <maxCatCount>0</maxCatCount>
    <featSize>1</featSize>
    <mode>BASIC</mode></featureParams>
  <stageNum>6</stageNum>
  <stages>
    <!-- stage 0 -->
    <_>
      <maxWeakCount>2</maxWeakCount>
      <stageThreshold>-2.3131692782044411e-02</stageThreshold>
      <weakClassifiers>
        <_>
          <internalNodes>
            0 -1 6 -4.0943585336208344e-02</internalNodes>
          <leafValues>
            9.1968655586242676e-01 -9.1649270057678223e-01</leafValues></_>
        <_>
          <internalNodes>
            0 -1 5 2.2267501801252365e-02</internalNodes>
          <leafValues>
            -8.8546156883239746e-01 8.9336097240447998e-01</leafValues></_></weakClassifiers></_>
    <!-- stage 1 -->
    <_>
      <maxWeakCount>2</maxWeakCount>
      <stageThreshold>-9.5012664794921875e-02</stageThreshold>
      <weakClassifiers>
        <_>
          <internalNodes>
            0 -1 3 -5.1979571580886841e-02</internalNodes>
          <leafValues>
            8.5310733318328857e-01 -9.2694061994552612e-01</leafValues></_>
        <_>
          <internalNodes>
            0 -1 11 -3.3412769436836243e-02</internalNodes>
          <leafValues>
            8.3192795515060425e-01 -8.0056416988372803e-01</leafValues></_></weakClassifiers></_>
    <!-- stage 2 -->
    <_>
      <maxWeakCount>2</maxWeakCount>
      <stageThreshold>5.4532133042812347e-02</stageThreshold>
      <weakClassifiers>
        <_>
          <internalNodes>
            0 -1 7 2.7516497299075127e-02</internalNodes>
          <leafValues>
            -7.0472443103790283e-01 8.6491936445236206e-01</leafValues></_>
        <_>
          <internalNodes>
            0 -1 8 2.2037804126739502e-02</internalNodes>
          <leafValues>
            -8.1038719415664673e-01 7.8793865442276001e-01</leafValues></_></weakClassifiers></_>
    <!-- stage 3 -->
    <_>
      <maxWeakCount>2</maxWeakCount>
      <stageThreshold>-1.3717989623546600e-01</stageThreshold>
      <weakClassifiers>
        <_>
          <internalNodes>
            0 -1 10 3.0915994197130203e-02</internalNodes>
          <leafValues>
            -8.0522567033767700e-01 7.7757179737091064e-01</leafValues></_>
        <_>
          <internalNodes>
            0 -1 2 -2.0810091868042946e-02</internalNodes>
          <leafValues>
            6.6804575920104980e-01 -8.1438285112380981e-01</leafValues></_></weakClassifiers></_>
    <!-- stage 4 -->
    <_>
      <maxWeakCount>2</maxWeakCount>
      <stageThreshold>-9.9010817706584930e-02</stageThreshold>
      <weakClassifiers>
        <_>
          <internalNodes>
            0 -1 4 2.0561621058732271e-03</internalNodes>
          <leafValues>
            -8.8421052694320679e-01 7.4642854928970337e-01</leafValues></_>
        <_>
          <internalNodes>
            0 -1 13 -3.5411451011896133e-02</internalNodes>
          <leafValues>
            7.8519970178604126e-01 -6.6700100898742676e-01</leafValues></_></weakClassifiers></_>
    <!-- stage 5 -->
    <_>
      <maxWeakCount>4</maxWeakCount>
      <stageThreshold>-2.3760201036930084e-01</stageThreshold>
      <weakClassifiers>
        <_>
          <internalNodes>
            0 -1 12 2.4248285219073296e-02</internalNodes>
          <leafValues>
            -7.6610976457595825e-01 7.5948196649551392e-01</leafValues></_>
        <_>
          <internalNodes>
            0 -1 1 1.6213038936257362e-02</internalNodes>
          <leafValues>
            -8.1657952070236206e-01 6.1436039209365845e-01</leafValues></_>
        <_>
          <internalNodes>
            0 -1 9 3.5501159727573395e-02</internalNodes>
          <leafValues>
            -7.4564093351364136e-01 6.2992978096008301e-01</leafValues></_>
        <_>
          <internalNodes>
            0 -1 0 4.2279627174139023e-02</internalNodes>
          <leafValues>
            -6.5486472845077515e-01 7.1515750885009766e-01</leafValues></_></weakClassifiers></_></stages>
  <features>
    <_>
      <rects>
        <_>
          0 6 4 10 -1.</_>
        <_>
          2 6 2 10 2.</_></rects>
      <tilted>0</tilted></_>
    <_>
      <rects>
        <_>
          1 13 8 4 -1.</_>
        <_>
          1 13 4 2 2.</_>
        <_>
          5 15 4 2 2.</_></rects>
      <tilted>0</tilted></_>
    <_>
      <rects>
        <_>
          2 2 6 6 -1.</_>
        <_>
          2 2 3 3 2.</_>
        <_>
          5 5 3 3 2.</_></rects>
      <tilted>0</tilted></_>
    <_>
      <rects>
        <_>
          3 5 6 10 -1.</_>
        <_>
          6 5 3 10 2.</_></rects>
      <tilted>0</tilted></_>
    <_>
      <rects>
        <_>
          5 12 1 6 -1.</_>
        <_>
          5 14 1 2 3.</_></rects>
      <tilted>0</tilted></_>
    <_>
      <rects>
        <_>
          6 13 7 4 -1.</_>
        <_>
          6 15 7 2 2.</_></rects>
      <tilted>0</tilted></_>
    <_>
      <rects>
        <_>
          7 2 6 6 -1.</_>
        <_>
          7 5 6 3 2.</_></rects>
      <tilted>0</tilted></_>
    <_>
      <rects>
        <_>
          8 0 4 6 -1.</_>
        <_>
          8 2 4 2 3.</_></rects>
      <tilted>0</tilted></_>
    <_>
      <rects>
        <_>
          8 14 3 6 -1.</_>
        <_>
          8 16 3 2 3.</_></rects>
      <tilted>0</tilted></_>
    <_>
      <rects>
        <_>
          9 0 4 6 -1.</_>
        <_>
          9 2 4 2 3.</_></rects>
      <tilted>0</tilted></_>
    <_>
      <rects>
        <_>
          11 1 8 8 -1.</_>
        <_>
          11 1 4 4 2.</_>
        <_>
          15 5 4 4 2.</_></rects>
      <tilted>0</tilted></_>
    <_>
      <rects>
        <_>
          11 12 8 6 -1.</_>
        <_>
          11 12 4 3 2.</_>
        <_>
          15 15 4 3 2.</_></rects>
      <tilted>0</tilted></_>
    <_>
      <rects>
        <_>
          12 11 4 9 -1.</_>
        <_>
          12 14 4 3 3.</_></rects>
      <tilted>0</tilted></_>
    <_>
      <rects>
        <_>
          16 4 4 13 -1.</_>
        <_>
          18 4 2 13 2.</_></rects>
      <tilted>0</tilted></_></features></cascade>
</opencv_storage>
